{
   "activation functions" : [ "Linear", "ReLU", "ReLU", "Linear" ],
   "biases" : [ -0.001233083720418121, 0.096494380387584316 ],
   "learningRate" : 0.0099999997764825821,
   "optimizer" : "adam",
   "topology" : [ 6, 10, 5, 3 ],
   "weights" : [
      -0.33116010173176524,
      -0.35475447872462784,
      -0.42359621067250502,
      0.27811956865331655,
      -0.20355691469359743,
      -0.76531161353028032,
      0.23045012188288092,
      1.4441163172547902,
      0.043850433586751496,
      -0.2625822475171028,
      -0.20391624584911383,
      -0.68799983877218807,
      0.14133788797824443,
      0.41941630517690898,
      0.18413259804666576,
      -0.16910467139228022,
      -0.53035951890433297,
      1.1162913206306599,
      -0.4488288578545494,
      0.16528490409880187,
      0.065237914983596199,
      -0.17035888933428345,
      -0.47625333504509343,
      0.0042932464753571587,
      -0.18950844168396744,
      0.55921071468181827,
      0.54774569403565287,
      0.13082641895308814,
      0.095279495326518915,
      0.40469649710107131,
      -0.050141811884496811,
      0.70100690355893369,
      -0.72282618069698201,
      0.7009508939689546,
      -0.080989784420702635,
      -0.085670000545949115,
      0.52306919766792004,
      -0.25436037643104764,
      -0.1901618412032422,
      -0.50572952744038457,
      -0.081823873849822606,
      0.29091838889399757,
      -0.071511208163826612,
      -0.62994505485205454,
      -0.093229430301131844,
      -0.70452039406209432,
      -0.052839922472535342,
      0.41864434749074175,
      0.66412115681659656,
      0.19960997226816146,
      -0.53656689585632866,
      0.1273516862422521,
      -0.70161764692564299,
      -0.23663737426111939,
      -0.57708128069970344,
      -0.0766649555757037,
      -0.35295836905379002,
      -0.48160044313639988,
      0.68795367843487942,
      0.5148193581141538,
      0.38244470453991863,
      -0.10667496622431373,
      0.42907036312570879,
      0.42117199012391704,
      -0.44311450666170449,
      -0.28895273158056684,
      -0.27859403027358115,
      0.39904138391930849,
      -0.19643166098797085,
      0.22350775178548549,
      -0.32076561570854151,
      0.33123449756882772,
      0.0095250534045880908,
      0.25629757266800002,
      0.37751849834779849,
      0.80357529240347081,
      0.41460357226608763,
      -0.34189268072305179,
      0.22041370519616954,
      0.11844948864077101,
      0.58026969325622679,
      0.21756984342273325,
      -0.21905822196062019,
      -0.59558238247638429,
      -0.56682777283217967,
      -0.025220256556048891,
      0.18780418898947052,
      -0.2848255548593186,
      -0.15083638151666179,
      -0.12637674556777639,
      -0.33334570954946241,
      -0.3021423380035258,
      0.27072746064644232,
      0.50395967928487739,
      -0.48241244745788492,
      0.99131771558543147,
      -0.091609300105347985,
      -0.045480402647943369,
      1.1652471656301662,
      -0.020783945943601004,
      -0.12905605504281664,
      -0.42942346007036197,
      -0.31405948893047242,
      0.40993069026005557,
      0.3707096959111556,
      -0.34597646272065846,
      0.2032026108679113,
      0.15104142104945933,
      -0.017794418937217782,
      -0.52880054790646969,
      0.073435835625537058,
      0.19700317853281218,
      0.34013314908755321,
      0.33557493668677707,
      0.078533681361430255,
      0.6137116904994887,
      -0.67788669822815339,
      0.52638341646813547,
      -0.64543034716785308,
      0.17885997159329889,
      0.015717330782506689,
      -0.16130966660816645,
      0.82883695537804081,
      -0.67966516083146278,
      -0.42200947371869429
   ]
}
